{
  "symbol": "BTCUSDT",
  "interval": "1m",
  "seq_len": 120,
  "horizon_steps": 5,
  "mALP_lin": {
    "alpha": 276.7149897390973,
    "beta": [
      0.8931692358225143,
      -0.08492191807191923,
      -0.10508644747268414,
      0.19751519036914822,
      0.01440191661824039,
      0.17168387715169875,
      0.9024899798545625,
      -1.417790557891573,
      0.6303577776297591,
      -0.428429103316325,
      0.10211390420725086,
      -0.08918780294055068,
      0.17605022504107826,
      -0.10147450252060392,
      -1.2363927693228671,
      -0.05266859472285043
    ],
    "train_ccc": 0.998207642895033
  },
  "map_quad": {
    "alpha": 44396.67153890824,
    "beta": [
      -0.00012134345152894682,
      0.007581181953941788,
      -0.0012382516613374359,
      -0.00042440106045223136,
      -0.0008269026175092579,
      5.8426327270169595e-05,
      0.000895468676577474,
      0.001683091038139557,
      -0.0013854995543900663,
      -0.006926629121180106,
      0.0008212274566736283,
      0.0003735234430043249,
      -1.3262354239850629e-06,
      -0.0011092785651119494,
      -0.0009731398733704918,
      -0.000903687590627041,
      9.361439121811495e-06,
      -1.927606210854798e-06,
      -0.0003129730180075835,
      -0.0023346285438864533,
      -0.0045953523539647,
      -0.005289937433494884,
      -0.003347531497650662,
      -0.000722811743332313,
      -0.0031184552687056047,
      0.031929296647528915,
      -6.887262219290559e-06,
      -5.123390241459142e-06,
      1.0111451409264049e-05,
      -0.0013314135524245235,
      -0.0008199254689907241,
      -0.0010922392873479168
    ],
    "train_ccc": 0.9977420357897582
  },
  "cv_avg": {
    "malp": 0.8034673365844348,
    "map": 0.21580908571416124
  },
  "ensemble_weights_cv": [
    0.7882722674704034,
    0.21172773252959654,
    0.0
  ]
}